[
    [
        [
            [
                3.5941150229590324e-13,
                0.7036334276199341,
                -0.002417269628494978,
                3.623596648433258e-13,
                6.865290806548976e-14,
                0.38594672083854675,
                -0.06885077059268951,
                -0.41589832305908203,
                -1.2238033665883802e-14,
                0.9508660435676575,
                0.8892508149147034,
                3.978472553570894e-13,
                0.24718701839447021,
                0.18923480808734894,
                -0.17692674696445465,
                0.000227238517254591,
                -1.9348257804946423e-12,
                -0.18808116018772125,
                0.6162745952606201,
                -0.383603572845459,
                5.351606202456949e-13,
                1.9939316514626208e-14,
                0.46537721157073975,
                0.942424476146698,
                -0.22152534127235413,
                -0.40168094635009766,
                1.0459569692611694,
                -0.7269493937492371,
                -5.864828586578369,
                0.36447158455848694,
                -1.4351415634155273,
                0.0606340654194355
            ],
            [
                4.2672077893782245e-13,
                -0.5753241777420044,
                -0.5999513864517212,
                3.1562068496943096e-13,
                2.425336949503365e-13,
                0.47729313373565674,
                -0.2985532879829407,
                0.3126882016658783,
                2.4092540977646223e-14,
                -2.1939282417297363,
                0.9522131681442261,
                5.103174285057965e-13,
                0.41069355607032776,
                0.9993771314620972,
                -0.11858604848384857,
                0.00024067908816505224,
                -2.1734187800187543e-12,
                -0.02978641726076603,
                0.6618459820747375,
                -0.6087007522583008,
                4.291965003885845e-13,
                -1.602235325751794e-14,
                -1.2557169198989868,
                1.4417349100112915,
                -0.07729183882474899,
                -0.48222815990448,
                -0.21746189892292023,
                -0.6147619485855103,
                -5.5552659034729,
                -0.6718766689300537,
                -1.290932536125183,
                0.044129207730293274
            ],
            [
                3.1466062394569505e-13,
                0.06589570641517639,
                -0.05245174467563629,
                2.309883241711358e-13,
                2.1411477734052664e-13,
                -0.5322138071060181,
                -0.45560914278030396,
                0.6730983257293701,
                2.373591977806143e-14,
                1.4048686027526855,
                0.5489891171455383,
                2.957440065412542e-13,
                0.16264715790748596,
                0.1032765805721283,
                0.02839398756623268,
                0.00020011482411064208,
                -1.3144842202564289e-12,
                0.3164748549461365,
                0.3640929162502289,
                -0.2274627983570099,
                2.8218147762014423e-13,
                -8.930373394987548e-14,
                1.0211118459701538,
                0.5071163177490234,
                -0.08539684116840363,
                -0.036121636629104614,
                -0.5839796662330627,
                -0.3883349299430847,
                -3.405726671218872,
                0.31984925270080566,
                -0.6290178298950195,
                0.07533011585474014
            ]
        ],
        [
            [
                3.0825621460776886e-13,
                0.8363141417503357,
                0.23333564400672913,
                2.648687746995698e-13,
                3.9900499354192376e-13,
                0.4590055048465729,
                0.2825145721435547,
                -0.4279685318470001,
                2.930456441743723e-13,
                1.2875337600708008,
                -1.1623138189315796,
                2.860282269281228e-13,
                0.17216883599758148,
                -0.8387510180473328,
                -0.26122358441352844,
                0.0002249429380754009,
                -1.397457128314572e-12,
                -0.31574109196662903,
                0.3435076177120209,
                -0.7129479050636292,
                4.782029264759069e-13,
                1.937563201244788e-13,
                0.4172113537788391,
                0.3094278872013092,
                -0.2315635085105896,
                -2.2626826763153076,
                1.1643486022949219,
                2.1779634952545166,
                0.6459901332855225,
                0.4391375780105591,
                -0.07774889469146729,
                0.05701753869652748
            ],
            [
                4.1335603559802814e-13,
                -0.5863505005836487,
                0.02099245972931385,
                1.749501016062513e-13,
                3.754266049513927e-13,
                0.4888021945953369,
                0.1164761632680893,
                0.5537461638450623,
                4.510943485067087e-13,
                -2.944470167160034,
                -1.184486746788025,
                3.3706463184804414e-13,
                0.28330445289611816,
                -1.145752191543579,
                -0.3485071361064911,
                0.00023443781537935138,
                -1.809407875266733e-12,
                0.06149866431951523,
                0.32486748695373535,
                -0.9277147650718689,
                4.3895372362975915e-13,
                1.7598662598820175e-13,
                -1.3295824527740479,
                -0.2658911347389221,
                -0.06869109719991684,
                -2.5805399417877197,
                -0.22959671914577484,
                2.4945473670959473,
                0.3671037554740906,
                -0.672731876373291,
                0.036811020225286484,
                0.04586979001760483
            ],
            [
                3.258954250125873e-13,
                -0.0037737926468253136,
                0.3286038041114807,
                5.722655557977366e-14,
                3.2177231257084216e-13,
                -0.5885701179504395,
                -0.054392870515584946,
                0.8063400983810425,
                3.452139832674228e-13,
                1.4780073165893555,
                -0.891356348991394,
                1.6712213481585164e-13,
                0.10589408129453659,
                -0.7074330449104309,
                -0.01999085396528244,
                0.00019464247452560812,
                -5.858294535240893e-13,
                0.5190340876579285,
                0.1352221965789795,
                -0.35495373606681824,
                3.8298707196078585e-13,
                8.916379733072549e-14,
                0.8588175773620605,
                0.3780961334705353,
                -0.09243164211511612,
                -1.337812900543213,
                -0.6812236309051514,
                1.1669639348983765,
                0.7169374227523804,
                0.23472726345062256,
                0.35692307353019714,
                0.0737638846039772
            ]
        ],
        [
            [
                -6.279440807393719e-14,
                0.3041183054447174,
                0.2988707423210144,
                5.6705447358095656e-14,
                3.9491456979567907e-13,
                0.01758825033903122,
                -0.004284731578081846,
                -0.08959579467773438,
                2.6415916437767806e-13,
                1.1742855310440063,
                0.4115058481693268,
                3.322597459751858e-13,
                0.12173082679510117,
                -0.3554050028324127,
                -0.19142192602157593,
                0.0002301212662132457,
                1.8566714870193665e-14,
                -0.42214933037757874,
                -0.0925692692399025,
                -0.13817942142486572,
                5.327446925447454e-13,
                5.788406321101391e-14,
                0.40863609313964844,
                0.12594275176525116,
                -0.21007195115089417,
                -1.0447701215744019,
                0.8217485547065735,
                -1.2746903896331787,
                1.7283858060836792,
                0.43508395552635193,
                0.3941585421562195,
                0.040703583508729935
            ],
            [
                1.0234329795308708e-13,
                -0.3993699848651886,
                0.3047575056552887,
                -3.825528760957597e-14,
                4.3174670652859626e-13,
                0.23587939143180847,
                0.11912111937999725,
                0.09557069838047028,
                2.920693201180491e-13,
                -2.6992027759552,
                0.3628494143486023,
                3.7702317396554053e-13,
                0.23011264204978943,
                -0.780973494052887,
                -0.1294909417629242,
                0.00024113593099173158,
                -9.043366099373285e-13,
                -0.09516289085149765,
                -0.10176455974578857,
                -0.10565989464521408,
                3.935181987126807e-13,
                1.163339173257394e-13,
                -1.1431338787078857,
                -0.22197860479354858,
                -0.07698668539524078,
                -1.3785059452056885,
                -0.3745547831058502,
                -1.812414288520813,
                1.7704453468322754,
                -0.5613423585891724,
                0.362664133310318,
                0.033138103783130646
            ],
            [
                -6.54820368393115e-14,
                0.15874625742435455,
                -0.20941676199436188,
                -9.369263855420543e-14,
                4.900369389784776e-13,
                -0.3429296314716339,
                0.005726921372115612,
                -0.009829733520746231,
                2.0331922723128976e-13,
                0.8721374869346619,
                0.18032343685626984,
                3.0428499889038896e-13,
                0.01286657527089119,
                -0.14040063321590424,
                -0.06416206061840057,
                0.00020311943080741912,
                2.0058062741128146e-13,
                0.3065067231655121,
                -0.03060118854045868,
                -0.05945160239934921,
                3.154997422170902e-13,
                -4.645564904710419e-15,
                0.7110499739646912,
                0.38883301615715027,
                -0.11803911626338959,
                -0.5222330689430237,
                -0.5547205209732056,
                -0.8368452191352844,
                0.7195860147476196,
                0.19353900849819183,
                0.30032259225845337,
                0.06277391314506531
            ]
        ]
    ],
    [
        [
            [
                4.200219273949035e-13,
                0.7845618724822998,
                -2.4047083854675293,
                4.3844769937080585e-13,
                9.982315809457104e-14,
                0.2676143944263458,
                -0.5848121643066406,
                -0.3611525893211365,
                2.8172416114378984e-13,
                1.1941169500350952,
                0.976180374622345,
                3.5465470078939465e-13,
                -0.11308439075946808,
                1.8477133512496948,
                -0.0017151847714558244,
                0.0002238726883661002,
                -1.7327333144689927e-12,
                -0.315978080034256,
                0.44003671407699585,
                0.03732230141758919,
                4.915863723031766e-13,
                5.890118715034046e-14,
                0.1971622258424759,
                0.4629662334918976,
                -0.11659959703683853,
                0.6993809938430786,
                1.2322566509246826,
                -0.7359845042228699,
                2.5667545795440674,
                0.43156367540359497,
                2.1651570796966553,
                0.06432782113552094
            ],
            [
                4.903896299451871e-13,
                -0.6731082797050476,
                -2.9033560752868652,
                3.9885068446772476e-13,
                2.6822259148982786e-13,
                0.3552526533603668,
                -0.8243820071220398,
                -0.05232083052396774,
                3.350955851775389e-13,
                -2.4055140018463135,
                1.020799994468689,
                3.7385952623633645e-13,
                -0.2488282471895218,
                2.5331480503082275,
                0.22312326729297638,
                0.00023383295047096908,
                -2.0598108722152952e-12,
                -0.022753458470106125,
                0.4808626174926758,
                -0.04773497208952904,
                4.4278851960878607e-13,
                8.221276713875e-14,
                -1.3543481826782227,
                0.9606339931488037,
                0.006713519338518381,
                0.9362514019012451,
                -0.4462353587150574,
                -0.5034400224685669,
                3.122760534286499,
                -0.808444619178772,
                2.0700175762176514,
                0.0466952919960022
            ],
            [
                3.943032424007231e-13,
                -0.09297939389944077,
                -1.3912954330444336,
                9.362587880543463e-14,
                1.613002130950933e-13,
                -0.5141571760177612,
                -0.6839808225631714,
                0.3174402117729187,
                2.0371638403959835e-13,
                1.799997091293335,
                0.6123693585395813,
                3.629109274379261e-13,
                -0.03086710162460804,
                1.1637952327728271,
                -0.06224270910024643,
                0.00019358983263373375,
                -1.2556067296998208e-12,
                0.3783477246761322,
                0.1712360680103302,
                0.11263682693243027,
                3.7154505275367733e-13,
                -8.403734048163976e-15,
                0.8655877709388733,
                0.1873742938041687,
                -0.00801725685596466,
                0.36660805344581604,
                -0.7581919431686401,
                -0.5669345259666443,
                2.1068649291992188,
                0.19926664233207703,
                1.6122267246246338,
                0.07140618562698364
            ]
        ],
        [
            [
                3.493292081383631e-13,
                0.9127933979034424,
                -1.3073362112045288,
                4.5364352465465663e-13,
                2.9773292121657025e-13,
                0.45237040519714355,
                0.12308300286531448,
                -0.45127183198928833,
                2.987585493666872e-13,
                1.8167790174484253,
                -1.8887407779693604,
                2.8985933661976326e-13,
                -1.2164437770843506,
                0.6820006370544434,
                0.47863349318504333,
                0.00022299612464848906,
                -2.3552848039953833e-12,
                -0.4038498103618622,
                0.06776741147041321,
                -0.18914295732975006,
                5.307439058556407e-13,
                1.5817230337999977e-13,
                0.3949904441833496,
                -2.5660574436187744,
                -0.15596505999565125,
                1.2666682004928589,
                1.308119773864746,
                2.352139711380005,
                0.7476730346679688,
                0.4761088490486145,
                -0.5467069149017334,
                0.05572884902358055
            ],
            [
                3.7605159329372195e-13,
                -0.6722645163536072,
                -1.7997877597808838,
                3.4150620157290257e-13,
                4.156194431583632e-13,
                0.42149561643600464,
                -0.06728597730398178,
                0.2434442788362503,
                4.426753289019786e-13,
                -2.963956356048584,
                -1.8243217468261719,
                3.153409608089297e-13,
                -1.3396202325820923,
                0.6632186770439148,
                0.7988862991333008,
                0.00023116312513593584,
                -2.932061277799436e-12,
                0.04727289080619812,
                0.08912499248981476,
                -0.2623732089996338,
                5.307439058556407e-13,
                1.7849976596644168e-13,
                -1.2013583183288574,
                -3.141043186187744,
                -0.015281997621059418,
                1.6229333877563477,
                -0.37377145886421204,
                3.0474319458007812,
                1.0342813730239868,
                -0.8196359872817993,
                -0.7634437680244446,
                0.04262301325798035
            ],
            [
                1.9719333587894794e-13,
                -0.1595122218132019,
                -0.4461490511894226,
                6.307163179317815e-14,
                2.6417076534092365e-13,
                -0.6499042510986328,
                -0.05631345510482788,
                0.6042763590812683,
                3.5351151801872593e-13,
                2.0213351249694824,
                -1.2558197975158691,
                2.2518240798494876e-13,
                -0.6698989272117615,
                0.36860111355781555,
                0.20205533504486084,
                0.0001930028956849128,
                -1.7350090548290398e-12,
                0.5371959805488586,
                -0.12471512705087662,
                -0.01649020053446293,
                4.373327600667304e-13,
                1.192678768247024e-13,
                0.9177497029304504,
                -1.4752321243286133,
                -0.04726769030094147,
                1.0992785692214966,
                -0.8112086057662964,
                1.4904062747955322,
                0.6699012517929077,
                0.12277480959892273,
                -0.5069176554679871,
                0.06532155722379684
            ]
        ],
        [
            [
                8.9131494882249e-14,
                0.4037994146347046,
                0.06109556555747986,
                1.9902208678833355e-13,
                2.8165333563687223e-13,
                0.13898691534996033,
                -0.02348918654024601,
                -0.17462344467639923,
                1.9800304516641443e-13,
                1.721561074256897,
                0.509075939655304,
                5.123998014083808e-13,
                -0.6072999238967896,
                -0.1963714063167572,
                -0.42013686895370483,
                0.00022737664403393865,
                3.6497454364292636e-13,
                -0.37621912360191345,
                -0.15718214213848114,
                0.08985733985900879,
                5.076217224342372e-13,
                1.375749828728262e-13,
                0.3862467110157013,
                -0.9076893329620361,
                -0.11473336070775986,
                0.6587807536125183,
                0.8199861645698547,
                -2.271815061569214,
                -0.2081487625837326,
                0.48257070779800415,
                -0.6976471543312073,
                0.035854607820510864
            ],
            [
                9.371851032854636e-14,
                -0.415486216545105,
                0.06294693052768707,
                8.942186455283135e-14,
                2.877421879324965e-13,
                0.2553219497203827,
                0.06570965051651001,
                -0.030606932938098907,
                2.837653343638197e-13,
                -2.640458345413208,
                0.5921265482902527,
                4.10247004553263e-13,
                -0.7035806179046631,
                -0.4893665015697479,
                -0.5112192630767822,
                0.0002379629440838471,
                -6.523333305821777e-13,
                -0.04008102789521217,
                -0.15431946516036987,
                0.09217663109302521,
                4.95415394905635e-13,
                1.5513356929359318e-13,
                -1.1068108081817627,
                -1.2941168546676636,
                -0.0028497285675257444,
                0.890548825263977,
                -0.43446946144104004,
                -2.6189675331115723,
                0.052907876670360565,
                -0.6286109089851379,
                -0.9066920280456543,
                0.026593942195177078
            ],
            [
                -1.4298009662089967e-13,
                0.017428139224648476,
                0.010203694924712181,
                1.1705450688869346e-14,
                2.926042112598448e-13,
                -0.386695921421051,
                0.08303776383399963,
                0.07505381852388382,
                1.9605249769547722e-13,
                1.4041905403137207,
                0.46506571769714355,
                3.356585842606563e-13,
                -0.19831807911396027,
                -0.05508612468838692,
                -0.20380699634552002,
                0.0001991580065805465,
                4.623411029025526e-13,
                0.3620147109031677,
                -0.14832058548927307,
                0.06077459454536438,
                5.017920757729999e-13,
                2.983406910731477e-14,
                0.6748092770576477,
                -0.40171706676483154,
                -0.057761166244745255,
                0.4156204164028168,
                -0.6072214245796204,
                -1.1432095766067505,
                0.02002941444516182,
                0.1419796198606491,
                -0.40533438324928284,
                0.05070893093943596
            ]
        ]
    ],
    [
        [
            [
                4.820709261464662e-13,
                0.44019365310668945,
                1.6887903213500977,
                -2.092584054170024e-14,
                -1.3413588002917504e-13,
                -0.12904320657253265,
                -0.13436385989189148,
                0.08471473306417465,
                3.3970357993587386e-13,
                0.8152392506599426,
                0.4296763837337494,
                5.013540038852071e-13,
                0.16486719250679016,
                0.2830635905265808,
                -0.08055350929498672,
                0.00022794351389165968,
                3.3361426685432627e-13,
                -0.26860636472702026,
                0.014383811503648758,
                0.14912600815296173,
                5.363251075890529e-13,
                2.8388478633817327e-14,
                0.22977899014949799,
                0.817638635635376,
                0.0030539147555828094,
                0.18274272978305817,
                1.0015147924423218,
                -0.1496870070695877,
                3.3352203369140625,
                0.4832805097103119,
                -0.7300873398780823,
                0.06916026771068573
            ],
            [
                3.801054794267539e-13,
                -0.4669479429721832,
                2.3345248699188232,
                2.2136333632555467e-14,
                7.907133200155472e-14,
                0.11771178245544434,
                -0.1578022986650467,
                -0.1431567668914795,
                3.800487756531329e-13,
                -2.552147626876831,
                0.34860163927078247,
                4.345873975356712e-13,
                0.018973294645547867,
                0.30652275681495667,
                -0.13414239883422852,
                0.0002423070400254801,
                -4.5144598237630007e-13,
                -0.08192113786935806,
                0.03678897023200989,
                0.15621279180049896,
                4.342604292655039e-13,
                2.0331738408759653e-14,
                -1.053519368171692,
                1.2624484300613403,
                0.1088968887925148,
                0.26326289772987366,
                -0.5783781409263611,
                -0.2362414449453354,
                3.3355391025543213,
                -0.6359544396400452,
                -1.0713855028152466,
                0.05207083746790886
            ],
            [
                4.818935506710476e-13,
                0.15470284223556519,
                1.0306864976882935,
                -2.8540958116850257e-13,
                3.4440894960182517e-14,
                -0.19815142452716827,
                -0.1927114576101303,
                -0.16394108533859253,
                3.498997966366879e-13,
                1.1508712768554688,
                0.11507278680801392,
                4.1461151460871204e-13,
                -0.0698794573545456,
                0.1682489961385727,
                -0.20130059123039246,
                0.00020131122437305748,
                1.9218815720725008e-13,
                0.21332159638404846,
                -0.012096174992620945,
                0.09485571086406708,
                3.0280484608451175e-13,
                -8.763232110450825e-14,
                0.8732009530067444,
                0.3553891181945801,
                0.09773968905210495,
                -0.08802490681409836,
                -0.737227201461792,
                -0.10467886179685593,
                1.0962663888931274,
                0.18312689661979675,
                -0.9131072759628296,
                0.0709182396531105
            ]
        ],
        [
            [
                3.8460657185088176e-13,
                0.3781457543373108,
                1.4556491374969482,
                2.2028808898538754e-13,
                1.8040012842931996e-13,
                0.07870940864086151,
                0.07832002639770508,
                -0.0212329663336277,
                2.6432504731006834e-13,
                1.1463879346847534,
                -1.0574363470077515,
                4.1461148750365773e-13,
                0.053429968655109406,
                -0.7157581448554993,
                1.7267934083938599,
                0.0002237792796222493,
                -5.462067972396289e-13,
                -0.28387126326560974,
                -0.0007511856383644044,
                -0.0002585130569059402,
                5.28202915434095e-13,
                1.5301732862564588e-13,
                0.3133133053779602,
                0.34654179215431213,
                -0.010521198622882366,
                0.18226149678230286,
                1.0749614238739014,
                0.8875007629394531,
                -1.7122594118118286,
                0.5481933951377869,
                0.5926880240440369,
                0.06772303581237793
            ],
            [
                3.828101030611819e-13,
                -0.5247014760971069,
                1.9787429571151733,
                1.7183101458633637e-13,
                3.079619892432106e-13,
                0.2161267250776291,
                0.08490452170372009,
                0.04684051126241684,
                3.704405217904577e-13,
                -3.2936105728149414,
                -0.8370382189750671,
                4.501077516348012e-13,
                0.014462534338235855,
                -0.9359052777290344,
                1.8153495788574219,
                0.00023676968703512102,
                -1.4693936171983335e-12,
                -0.02446361817419529,
                0.01979825645685196,
                0.04536587744951248,
                5.623389124145839e-13,
                1.6259007486717214e-13,
                -1.0290535688400269,
                0.5795947909355164,
                0.0981193408370018,
                0.4516249895095825,
                -0.3884980082511902,
                0.9527983665466309,
                -1.7686781883239746,
                -0.5756889581680298,
                0.5799470543861389,
                0.053875815123319626
            ],
            [
                2.80552572276202e-13,
                0.028080912306904793,
                0.8057974576950073,
                -1.8634728905352754e-13,
                1.7647287711003434e-13,
                -0.20172375440597534,
                0.04180498048663139,
                0.07411589473485947,
                2.3413719964573976e-13,
                1.1516872644424438,
                -0.6197885274887085,
                3.4484310480926983e-13,
                0.0573483407497406,
                -0.5437444448471069,
                0.8511019349098206,
                0.00019459014583844692,
                -5.345206699133853e-13,
                0.31460508704185486,
                0.011704659089446068,
                -0.013506363146007061,
                5.229628037041467e-13,
                5.718370248890617e-14,
                0.724587619304657,
                0.37664735317230225,
                0.0707622766494751,
                -0.13799937069416046,
                -0.667943000793457,
                0.34992337226867676,
                -1.0557031631469727,
                0.1964157372713089,
                0.47068536281585693,
                0.0707835778594017
            ]
        ],
        [
            [
                4.200218731847949e-13,
                0.12409462034702301,
                0.12680530548095703,
                2.829491740734269e-13,
                1.7336106779720223e-13,
                -0.09279955923557281,
                -0.13195741176605225,
                0.125016450881958,
                3.666527463043988e-14,
                1.3838423490524292,
                0.388081431388855,
                5.102210429326626e-13,
                0.23181746900081635,
                -0.26267531514167786,
                -0.7404947280883789,
                0.00022753184020984918,
                1.9912619730194647e-12,
                -0.23397469520568848,
                -0.012068456038832664,
                0.06353003531694412,
                4.482879724983929e-13,
                5.741232006950189e-14,
                0.28343677520751953,
                0.01399617362767458,
                0.02841862104833126,
                -0.062477461993694305,
                0.6228288412094116,
                -0.6343264579772949,
                -1.561475157737732,
                0.4053528606891632,
                0.357424259185791,
                0.04751919209957123
            ],
            [
                4.635966632283994e-13,
                -0.2638248801231384,
                0.4014502763748169,
                1.6798864274462921e-13,
                3.1088326357675555e-13,
                0.1555323600769043,
                0.014893117360770702,
                0.005957492161542177,
                1.6790594522392288e-13,
                -2.5380306243896484,
                0.5014845132827759,
                4.4047578084960293e-13,
                0.26450204849243164,
                -0.137297585606575,
                -0.8498845100402832,
                0.00024003273574635386,
                7.220546317972254e-13,
                -0.11576495319604874,
                -0.003686862764880061,
                0.056146007031202316,
                5.646211037775573e-13,
                8.084074994705107e-14,
                -1.0443428754806519,
                0.026997145265340805,
                0.11766789108514786,
                0.13051986694335938,
                -0.40812116861343384,
                -0.6767581701278687,
                -1.8839282989501953,
                -0.5291129350662231,
                0.39008381962776184,
                0.03986566141247749
            ],
            [
                4.752613775617365e-13,
                0.2379055917263031,
                -0.16794748604297638,
                -7.409222839210514e-14,
                2.9311346102026126e-13,
                -0.08814799785614014,
                0.1081928089261055,
                -0.05707645043730736,
                6.317289881718714e-15,
                1.0740681886672974,
                0.32256942987442017,
                3.8918095634186967e-13,
                0.07678472250699997,
                0.15557168424129486,
                -0.3449888229370117,
                0.0002006472641369328,
                1.603990378018505e-12,
                0.14408673346042633,
                0.017320869490504265,
                0.028121234849095345,
                4.468601053422838e-13,
                -5.941789757695631e-14,
                0.5537772178649902,
                -0.08532196283340454,
                0.05699271708726883,
                -0.0897841677069664,
                -0.42445138096809387,
                -0.10115311294794083,
                -0.9839160442352295,
                0.1873730570077896,
                0.2664368152618408,
                0.059322960674762726
            ]
        ]
    ]
]